-3.568346335413878356e-01
2.295396052553313193e-01
-2.807896513127832727e-01
-2.503332315336139757e-01
-2.611223620649140154e-01
3.034742047734448334e-01
2.605097151178986103e-01
-2.944743697481345124e-01
-3.445156095065616264e-01
2.323445993400596044e-01
-2.342122451967994234e-01
-2.509794355266064536e-01
-3.303129226592147472e-01
-2.998580960457214450e-01
-4.227015149515616077e-01
3.219341528302121502e-01
-2.936054492930209592e-01
1.983441894540600436e-01
-3.218115122814637630e-01
-2.902726378642864757e-01
2.546836180090723545e-01
2.798581894387524027e-01
-2.861540742399431569e-01
-2.610968518774917091e-01
-1.948038236857250471e-01
-4.475952437114492088e-01
1.923037097031387865e-01
-2.841972759978674823e-01
-3.260943836266135265e-01
-2.803666510305219406e-01
-2.770269434821916454e-01
1.822865427716495734e-01
-2.890633104925369734e-01
2.240894307660604157e-01
2.198597354223474354e-01
-2.705925375312829839e-01
-4.492045671157541276e-01
-3.008190367067231641e-01
2.193226281370878050e-01
-2.650170897809552839e-01
-3.103484073110806540e-01
-3.432453698758932692e-01
2.480929373101128377e-01
2.832905631153414538e-01
-3.362498117487854321e-01
-2.970636170302437540e-01
-4.303858042128905770e-01
2.707939330716657156e-01
-2.756508756966962737e-01
-2.685177366470113403e-01
2.406258127270903824e-01
1.948663845796887728e-01
2.165106967998558507e-01
2.039430581619766925e-01
-2.821973494996603549e-01
2.045230988251809101e-01
-4.213835922090318209e-01
3.561338388250266385e-01
1.994404316393674770e-01
-2.638973635046124033e-01
-2.623486539866174416e-01
-3.255099714203336658e-01
2.185244863515481972e-01
-3.967756921864230568e-01
2.987892514933125909e-01
-2.767584827687751270e-01
-2.878309974340060307e-01
1.966586961418690105e-01
-2.615377097182003396e-01
-2.857563428261056804e-01
-2.760269239435175770e-01
-3.443128733243310258e-01
2.250742897792756270e-01
2.994242241099059343e-01
-2.620032932338420828e-01
-2.823680293568685551e-01
-2.572439403194283214e-01
2.877006455143551467e-01
-3.208192249260588547e-01
2.902208851477415252e-01
-2.927348580099035091e-01
-2.649604456652731588e-01
-2.872696490711224571e-01
-2.935908404629294366e-01
-3.543966829192218282e-01
2.886692323020585982e-01
-3.464541031923052961e-01
-3.186897796130649940e-01
-2.677748956011677950e-01
2.904098004992093363e-01
-3.743641186536489363e-01
-2.695677840260768399e-01
2.168285321166579238e-01
-2.904710435161183546e-01
-2.727359724463115365e-01
-2.533044796021174938e-01
2.743580213633971532e-01
-3.591200474996830705e-01
2.623900810998369693e-01
2.468794937627075969e-01
-3.196658057847352463e-01
-2.915976096217117175e-01
-2.722350408242917852e-01
2.031027186611747692e-01
2.344968543033714437e-01
2.591714059085218347e-01
-2.662569656438822374e-01
2.120153203350598481e-01
-4.478733761340653041e-01
-2.606064470318943949e-01
2.804363500617687577e-01
1.927057362366406956e-01
-2.595817560958707526e-01
-2.609202517115780107e-01
1.817429360516367443e-01
2.034588911934311350e-01
-2.793166361790005436e-01
2.408289638422313195e-01
-3.174587391522343260e-01
2.278813369364507679e-01
-2.978271800253951551e-01
2.487281624812962277e-01
2.138971279305784123e-01
2.212866202230321100e-01
2.409369948049278620e-01
-3.737056985797676534e-01
2.011751719412786521e-01
2.377230405435061811e-01
2.181392866789264029e-01
-2.862413567870920605e-01
-3.527037396719229778e-01
-2.919276765945080232e-01
-3.618095907933515099e-01
-1.908772949483734938e-01
-3.125071821233574298e-01
1.940027112259959940e-01
2.492948110639560677e-01
1.915223184781959520e-01
2.484581250450377532e-01
2.906486621821535166e-01
-2.773757081486917242e-01
-4.078088508273616797e-01
2.923930504885010051e-01
2.197193901869089194e-01
-2.892035674442055559e-01
-2.261740270869572744e-01
-2.348237388730393949e-01
1.824743964192246382e-01
-2.986889797995079254e-01
-3.090641214916972079e-01
2.126479150588296563e-01
1.785411213158216437e-01
1.903257919119653030e-01
-2.798565130565535686e-01
2.444688670838019440e-01
2.041640919273012278e-01
3.455184502875786046e-01
-2.843385377532806069e-01
2.229841820908478600e-01
-3.164240457054126598e-01
-3.664625491621967268e-01
2.152342437956525634e-01
-2.767632880956231722e-01
2.699052566806846576e-01
2.054190743978149269e-01
-3.355633159654272113e-01
2.306917171486476681e-01
2.518950598493148174e-01
3.008555530588005733e-01
2.045245686630623172e-01
-3.153871578167006251e-01
-2.868982960162345663e-01
2.108099543228020567e-01
-3.050294353311359674e-01
2.719792951944089987e-01
2.949861283103290543e-01
-3.393364724825553846e-01
-2.533824590594794812e-01
-3.645597307142151577e-01
3.497432693122946579e-01
-3.130298019817931987e-01
-2.560037530447888954e-01
-2.330834796133847975e-01
-2.760343857465709094e-01
2.059816622307080181e-01
-3.344061602323058491e-01
2.117553272662656694e-01
2.487906900098404983e-01
-2.432102781226027077e-01
-2.538777279478166560e-01
-2.499814234717143147e-01
-2.713712472094102490e-01
2.066433149908268874e-01
-2.549419201837656579e-01
-2.968012838336486214e-01
3.109935754663498697e-01
-3.188559851416449265e-01
-2.895421819922464612e-01
-3.079260170357016602e-01
3.989232012310842679e-01
